u,index,value
-3,0,-3167.2285555130643
-3,1,-3707.914215152539
-3,2,422.03425478915307
-3,3,-989.8921137613683
-3,4,-1259.9373417871095
-3,5,-2606.961129256727
-3,6,-1050.3063700164912
-3,7,-1600.7598556838402
-3,8,-251.90710568918732
-3,9,-2815.04732461746
-3,10,-3298.0510192462757
-3,11,-3457.6769309159577
-3,12,-3194.8884921842737
-3,13,250.56307385236792
-3,14,-1823.687851796344
-3,15,-687.7677943891533
-3,16,-2587.9557459095427
-3,17,-742.6481223225621
-3,18,-847.7501319095301
-3,19,431.2403163279523
-3,20,-2706.2718558221236
-3,21,-3839.841684765476
-3,22,-3570.1975575146685
-3,23,-4273.480621975614
-3,24,214.49949510218175
-3,25,-2144.5402751488627
-3,26,-1206.070931204649
-3,27,-1766.3506340521205
-3,28,-1087.6386201080352
-3,29,92.54986496670459
-3,30,-232.44719176971412
-3,31,-3292.933368548593
-3,32,-2952.960672495105
-3,33,-3644.608634961901
-3,34,-4320.588282339794
-3,35,112.49830571568897
-3,36,-2343.1405174423066
-3,37,-383.935811457845
-3,38,-2251.3238031468627
-3,39,37.122912790216674
-3,40,645.1805646174873
-3,41,-916.7685888612558
-3,42,-4000.5519005411584
-3,43,-2729.7336386184693
-3,44,-2005.5000974789914
-3,45,-4104.134198834341
-3,46,-2406.0770260516942
-3,47,-1543.7171228173838
-3,48,-1898.584763602403
-3,49,-1371.699183318003
-3,50,1715.668615461607
-3,51,-1051.5305314510365
-3,52,-2268.105261243951
-3,53,-3467.7547429646997
-3,54,-1665.4265106160908
-3,55,-1660.9776765682857
-3,56,-4759.235334571296
-3,57,-1324.3110960117258
-3,58,271.02086667206123
-3,59,-2534.16456448147
-3,60,1219.762550935002
-3,61,868.7773407678391
-3,62,-2993.4255580612503
-3,63,-1155.7115253580598
-3,64,-3527.778504386488
-3,65,-1406.6407230452744
-3,66,-1664.9201664597927
-3,67,-4157.983270595575
-3,68,-1786.626244761288
-3,69,-2864.1167825566636
-3,70,-947.3165702691977
-3,71,2315.4577371328082
-3,72,-2864.320571960665
-3,73,-1813.2843672707452
-3,74,-797.5945573339204
-3,75,-5492.278793628383
-3,76,-2322.0202552155956
-3,77,-1141.890165774493
-3,78,-3141.2618355204745
-3,79,-2019.5216470793819
-3,80,-655.7776903993496
-3,81,2230.3006641475386
-3,82,-1481.864023195299
-3,83,-1802.4114065273216
-3,84,-1199.2359879229098
-3,85,-1794.5836563264538
-3,86,-4104.903961957655
-3,87,-2109.123067462948
-3,88,-1747.7096717296536
-3,89,-3921.855641745521
-3,90,-1949.692340752205
-3,91,-283.84273319328145
-3,92,264.7164111103185
-3,93,-2445.8301795491093
-3,94,-441.82372735377203
-3,95,-2982.3044862072743
-3,96,-304.3187980520221
-3,97,-4166.5198445714705
-3,98,-2540.3513083248004
-3,99,-3117.499725085199
-3,100,-4203.4851739981605
-3,101,108.8055672660452
-3,102,1445.9904003755055
-3,103,-1309.6213501607479
-3,104,-1371.4335293358881
-3,105,-1520.386662844654
-3,106,-1826.2560168806424
-3,107,-86.91976873422723
-3,108,-4883.477273842101
-3,109,-2781.7162270488293
-3,110,-3826.595076986711
-3,111,-3045.59397229629
-3,112,288.3425883027132
-3,113,-1299.943710109006
-3,114,-996.5475402429965
-3,115,-2620.387453800787
-3,116,-1104.7956020016645
-3,117,-1495.6216832650641
-3,118,-496.89424116231834
-3,119,-2633.835962196637
-3,120,-3502.8850439432886
0,0,-3916.5641151956665
0,1,-3278.4933858291124
0,2,457.7625234432382
0,3,-1033.618115065076
0,4,-1363.36794965635
0,5,-2500.013395100945
0,6,-1047.6548664434943
0,7,-1599.6357220617244
0,8,-175.03936931280134
0,9,-3098.492882969817
0,10,-2931.3072228819615
0,11,-3382.843295481534
0,12,-2812.3906933101043
0,13,-64.79669601214535
0,14,-1720.307089151259
0,15,-697.2590429953674
0,16,-2632.152631477165
0,17,-645.8478566352026
0,18,-797.7251023060227
0,19,377.26448061262795
0,20,-2760.0257642496504
0,21,-3888.2851851684436
0,22,-3782.301802647635
0,23,-4295.616088177326
0,24,436.4150820165981
0,25,-2195.123656514964
0,26,-1182.1392920538724
0,27,-1741.560911634735
0,28,-1008.2984918832914
0,29,55.7982148795547
0,30,-250.37776363263916
0,31,-3398.3541879009413
0,32,-3212.9865896713554
0,33,-3078.690103564963
0,34,-4012.2937799926062
0,35,39.7689253886032
0,36,-2386.3844441497854
0,37,-316.79711503505973
0,38,-2346.3219425491966
0,39,228.6807704856721
0,40,612.9816919737133
0,41,-928.1583648520566
0,42,-4298.762376615193
0,43,-2373.651910722388
0,44,-2601.9716775982397
0,45,-4414.754113543913
0,46,-2096.141703768544
0,47,-1414.8437461252922
0,48,-1996.6577558063411
0,49,-1171.2303665377156
0,50,1729.6096194836286
0,51,-1253.6790437263915
0,52,-2285.568921655436
0,53,-3322.5570752459435
0,54,-1498.8383930347466
0,55,-1931.93621557612
0,56,-4448.63790448433
0,57,-1249.4712316524276
0,58,37.592472950303
0,59,-2460.9063143125227
0,60,1389.9195658864849
0,61,630.5612887758211
0,62,-2886.805505482554
0,63,-1109.494482483958
0,64,-3985.4113777519947
0,65,-1817.3263747292544
0,66,-1512.8822353590863
0,67,-3866.779924776609
0,68,-1998.2119004541785
0,69,-2894.2568205045213
0,70,-585.8561581939604
0,71,2170.81460457112
0,72,-3034.7264537129117
0,73,-1713.1882834910134
0,74,-833.3884104108395
0,75,-5456.530603142247
0,76,-2182.865957624093
0,77,-1166.981072314377
0,78,-3126.523036637079
0,79,-1821.8783744441837
0,80,-462.03494299074066
0,81,2082.6735315238398
0,82,-1604.8681283121032
0,83,-1685.8079432991262
0,84,-1195.878164915702
0,85,-1864.9422357121598
0,86,-4290.215366331472
0,87,-1713.056244540496
0,88,-1642.264221958107
0,89,-3857.6205473040814
0,90,-1991.2250456665165
0,91,-15.660512330313374
0,92,84.52313832989944
0,93,-2344.490674698752
0,94,-497.7189260640888
0,95,-3043.6702737042774
0,96,-89.1115678475012
0,97,-4562.902870838502
0,98,-2061.668376702176
0,99,-3188.7114344052593
0,100,-4204.235184804053
0,101,222.17358128872618
0,102,1321.8205912493236
0,103,-1363.4524283493595
0,104,-1351.26761608372
0,105,-1537.6544883677104
0,106,-1714.837507053555
0,107,-309.87942665971974
0,108,-4953.04679268741
0,109,-2709.1046075572517
0,110,-3624.2147756444856
0,111,-3015.857694198112
0,112,404.06068975180295
0,113,-1325.4347366604572
0,114,-1019.2420158428475
0,115,-2621.4219636320267
0,116,-996.6707982638311
0,117,-1610.6274504623705
0,118,-285.10260914864784
0,119,-2916.810351844646
0,120,-3299.7800675674703
3,0,-4085.9963451502886
3,1,-2659.5619866143684
3,2,323.7741967798653
3,3,-996.6925828213068
3,4,-1469.6484820585829
3,5,-2391.6553408804107
3,6,-1100.2550280491134
3,7,-1532.3637547378296
3,8,-211.25979852564467
3,9,-3216.7675939581018
3,10,-2351.4996209558976
3,11,-3860.013299126738
3,12,-2563.293693188775
3,13,-121.83206753236145
3,14,-1733.1377932918429
3,15,-720.3877856006262
3,16,-2700.6157153386857
3,17,-521.1498455573235
3,18,-903.6899783662127
3,19,559.3095552126942
3,20,-3377.210439431002
3,21,-3622.0902684559483
3,22,-4002.5854105582853
3,23,-3754.867416447633
3,24,294.31145196828743
3,25,-2217.741660006031
3,26,-1179.192811882406
3,27,-1767.347147179757
3,28,-947.346018571779
3,29,70.23094731232442
3,30,-326.5995187397437
3,31,-3515.006755989302
3,32,-2505.035226908079
3,33,-3402.9961227622
3,34,-4134.4232428471105
3,35,-42.02755799011901
3,36,-2315.5140997064645
3,37,-318.52610070845174
3,38,-2429.987396867466
3,39,408.87477793658707
3,40,507.1972449964187
3,41,-1095.8504676831694
3,42,-4456.471682981126
3,43,-2460.894928654928
3,44,-1658.8196240049879
3,45,-4224.5942226967945
3,46,-2001.484150764724
3,47,-1530.586111224624
3,48,-2030.2211874624722
3,49,-1023.4026916981492
3,50,1768.0785730813848
3,51,-1522.017475838486
3,52,-2246.3995217068673
3,53,-3201.253784187386
3,54,-1499.679272601793
3,55,-1711.9499846529081
3,56,-5019.706460478243
3,57,-828.2450786851773
3,58,-72.97458230011826
3,59,-2463.26151093591
3,60,1609.3811764011894
3,61,298.17599337935866
3,62,-2783.9673347312173
3,63,-1230.5959491862818
3,64,-4112.785790268132
3,65,-2208.4840650447727
3,66,-1318.4832629505793
3,67,-3902.0222163370813
3,68,-1773.270497624533
3,69,-3020.8607540947332
3,70,-329.89203562544105
3,71,2033.72075876208
3,72,-3227.0870743882206
3,73,-1450.142306772995
3,74,-1125.0652435103393
3,75,-5304.688887516949
3,76,-2383.400978823383
3,77,-832.7068242589594
3,78,-2867.3616720035025
3,79,-1949.0887770257443
3,80,-342.27332533117783
3,81,2023.2777623899956
3,82,-1754.4296403868057
3,83,-1621.3947598560148
3,84,-1219.7764885575468
3,85,-2049.217220688796
3,86,-4273.990175350087
3,87,-1570.466776643976
3,88,-1958.0186703897266
3,89,-4168.837809843039
3,90,-1839.58413104245
3,91,179.89913015192752
3,92,-112.9943605413846
3,93,-2278.525895910103
3,94,-588.2648301966746
3,95,-2989.6154008617586
3,96,21.424784093183344
3,97,-4682.012541100852
3,98,-2148.7089673611054
3,99,-3129.5355834231605
3,100,-3849.1268939072193
3,101,374.0879202244256
3,102,1152.8397304435673
3,103,-1414.2499594336723
3,104,-1375.5807659514871
3,105,-1507.103479792475
3,106,-1768.383374524118
3,107,-355.74898594001377
3,108,-5490.2793628674035
3,109,-2240.6011914827163
3,110,-4244.126121091795
3,111,-2525.206996590744
3,112,232.57534127520478
3,113,-1284.856998901163
3,114,-1115.3479529910346
3,115,-2570.4518641024647
3,116,-1048.7624981421968
3,117,-1568.9178453401971
3,118,-112.11150975552322
3,119,-3247.6586651064426
3,120,-2797.3520658492203
