u,index,value
-3,0,-2915.4562737245637
-3,1,-2862.917784166252
-3,2,-0.31246997028016427
-3,3,-1058.6936163715784
-3,4,-1025.3381549450244
-3,5,-2557.8085735882514
-3,6,-1285.7080411181369
-3,7,-1540.0074887848498
-3,8,-230.07579662123
-3,9,-2582.3158024077225
-3,10,-2131.4435013865027
-3,11,-4219.413423267552
-3,12,-2753.5993425662987
-3,13,-161.3039723687229
-3,14,-1738.498442384471
-3,15,-1047.2619125740653
-3,16,-2164.8811651926103
-3,17,-937.7978138527498
-3,18,-1016.7826111066264
-3,19,831.1731595873108
-3,20,-3473.4645804938573
-3,21,-3873.8557755947463
-3,22,-3862.566841542595
-3,23,-3015.187375922061
-3,24,-1012.6237933088099
-3,25,-1778.8454124710418
-3,26,-1401.289812287918
-3,27,-1703.44213241977
-3,28,-1280.934269042305
-3,29,96.66995569511107
-3,30,-360.1105780021
-3,31,-3536.923709336273
-3,32,-1964.3740771059183
-3,33,-4666.134718803104
-3,34,-3338.0565805965057
-3,35,-347.4867783458582
-3,36,-2269.846590583665
-3,37,-669.6438519546172
-3,38,-2183.0332555855202
-3,39,-322.77118939393824
-3,40,927.815312491349
-3,41,-1399.455081393038
-3,42,-4218.97963172039
-3,43,-993.2989028145607
-3,44,-3546.379236148617
-3,45,-4268.917522817118
-3,46,-2066.9082866263802
-3,47,-1955.6429737442195
-3,48,-1908.0316946823498
-3,49,-797.0215747637363
-3,50,1112.127873564674
-3,51,-878.3667794269977
-3,52,-2592.5085760655707
-3,53,-3339.03352542372
-3,54,-587.8326522095931
-3,55,-2657.372687499058
-3,56,-5019.805445287603
-3,57,-576.2074410165806
-3,58,-873.2095409321407
-3,59,-2270.768526402701
-3,60,581.2799429001565
-3,61,111.91196543206459
-3,62,-1732.5158910772418
-3,63,-2039.8099885093723
-3,64,-3403.2321616818813
-3,65,-657.090666826118
-3,66,-2420.749242174767
-3,67,-4221.256918819754
-3,68,-1279.4001995980593
-3,69,-3809.858131525618
-3,70,-355.32691707243293
-3,71,2410.1293313864417
-3,72,-2470.9290883518247
-3,73,-1376.9175311144995
-3,74,-2392.776153606687
-3,75,-3419.657454991027
-3,76,-580.6433674398186
-3,77,-2271.577882595769
-3,78,-3711.1812882895733
-3,79,-1714.6257756880025
-3,80,-349.8000185323974
-3,81,2366.0224902383425
-3,82,-2008.57777948801
-3,83,-1874.9135378294998
-3,84,-941.4709807577544
-3,85,-2497.665158513882
-3,86,-2672.8623562665125
-3,87,-496.7246699563602
-3,88,-2753.6033982294794
-3,89,-4112.137696611309
-3,90,-1512.005970075362
-3,91,-687.0235310958901
-3,92,470.56992167351893
-3,93,-2618.5889266879312
-3,94,-196.17761841208656
-3,95,-2744.1846773145994
-3,96,-895.8552858238324
-3,97,-3129.761907289664
-3,98,-985.2050985255662
-3,99,-3965.8106939116815
-3,100,-3667.9715066776525
-3,101,108.99781058723805
-3,102,1362.1141471550343
-3,103,-1134.2903501563276
-3,104,-1679.7677779680562
-3,105,-1678.9618985821226
-3,106,-1845.0829130374539
-3,107,-186.1541517757026
-3,108,-4431.480665702126
-3,109,-1922.3043023577843
-3,110,-5101.857938049329
-3,111,-2026.791144767243
-3,112,-329.367490214281
-3,113,-1178.8354485557331
-3,114,-983.6482785675596
-3,115,-2686.059208320246
-3,116,-1000.1818947293992
-3,117,-1747.2301308191081
-3,118,-37.21109188476761
-3,119,-2662.284926744703
-3,120,-2991.4905394848197
0,0,-5538.392133715227
0,1,-2396.849819976194
0,2,-51.286088597570846
0,3,-1041.1395203781426
0,4,-1176.4984976895273
0,5,-2427.402620591903
0,6,-1286.2029201955515
0,7,-1543.6427425872855
0,8,-131.8939966670856
0,9,-2873.5147321544823
0,10,-2456.655462985769
0,11,-3445.1158164666376
0,12,-2396.9358514558667
0,13,-268.2723042623666
0,14,-1662.5105466904042
0,15,-1043.17486775838
0,16,-2172.796263816227
0,17,-913.3674826898243
0,18,-876.2729094621559
0,19,703.0675234123324
0,20,-3791.454753284059
0,21,-3211.9113846350406
0,22,-3976.5022795171453
0,23,-3302.389392118732
0,24,-985.9533871931782
0,25,-1831.9764695634078
0,26,-1377.927248910398
0,27,-1716.2013252171596
0,28,-1167.1434904667553
0,29,8.22288244478776
0,30,-258.2471658377972
0,31,-3705.410762604304
0,32,-1907.1041575458917
0,33,-4507.148331107284
0,34,-2712.9702921940025
0,35,-428.7473499622499
0,36,-2197.2403960540028
0,37,-663.5588355509011
0,38,-2209.9164566851255
0,39,-153.8040386506792
0,40,933.0586869677537
0,41,-1627.575982446388
0,42,-4276.292131151354
0,43,-1328.9986286686028
0,44,-3971.0810255095967
0,45,-3916.987494004812
0,46,-2120.1408867925898
0,47,-1932.4234708732986
0,48,-1900.0957021200368
0,49,-653.8848276736115
0,50,1075.211879705115
0,51,-997.5975523350371
0,52,-2634.814916604423
0,53,-3163.5235089646003
0,54,-652.2317912444981
0,55,-3002.411597105175
0,56,-4732.7919481864055
0,57,-475.8845990709535
0,58,-992.9134359458716
0,59,-2208.281542584642
0,60,703.0864342797892
0,61,-17.838534179938783
0,62,-1672.3594907117877
0,63,-2177.652910672432
0,64,-3296.590392204036
0,65,-641.6517333808188
0,66,-2530.848065386824
0,67,-4000.063968301918
0,68,-1568.569591928827
0,69,-3817.3735415750084
0,70,5.807539669839361
0,71,2250.51128078788
0,72,-2612.527977242457
0,73,-1222.5105547391647
0,74,-2474.1864078756957
0,75,-3506.764581672993
0,76,-610.717153553519
0,77,-2353.8536442436252
0,78,-3628.7050573683855
0,79,-1571.6712491361718
0,80,-144.21683141622918
0,81,2241.8916796677436
0,82,-2159.0267922287408
0,83,-1684.663429379388
0,84,-1034.2082841027407
0,85,-2529.5550747092116
0,86,-2499.859892399707
0,87,-423.4320029043782
0,88,-2930.276649454295
0,89,-3858.8682457557165
0,90,-1601.7921670234844
0,91,-453.3210604971021
0,92,284.5166376778918
0,93,-2527.8679524875283
0,94,-249.95262635614102
0,95,-2730.1940990635894
0,96,-842.2992461124381
0,97,-3416.1726156728814
0,98,-779.2128556297812
0,99,-4044.1413741228657
0,100,-3588.150044294444
0,101,328.6877014417522
0,102,1244.8722948519646
0,103,-1215.1185515608215
0,104,-1639.056721305081
0,105,-1688.7955281344057
0,106,-1810.898341228031
0,107,-42.06176490347294
0,108,-4708.494198950104
0,109,-1471.4005027145804
0,110,-4998.058111065367
0,111,-1890.9735323207835
0,112,-379.76097641497773
0,113,-1150.1918203066145
0,114,-1027.5590885970853
0,115,-2679.3529968412035
0,116,-972.1163925559968
0,117,-1767.7735836870463
0,118,-2.281579622954426
0,119,-2949.4952880585206
0,120,-2589.770213703669
3,0,-5400.365589938232
3,1,-1969.249889314507
3,2,-211.48510922880212
3,3,-1073.0302478126798
3,4,-1170.6696518705196
3,5,-2509.809014506254
3,6,-1211.4040767034942
3,7,-1603.066761977059
3,8,15.931343883082029
3,9,-3288.136057947663
3,10,-2749.1553898597194
3,11,-3404.4643538222563
3,12,-2156.2512866292295
3,13,-382.19816131282045
3,14,-1616.0473162890285
3,15,-1129.2936742472575
3,16,-2151.7692095897314
3,17,-911.5075076613742
3,18,-841.3939266828799
3,19,634.7367832287937
3,20,-3879.9287443424823
3,21,-2370.6440224130574
3,22,-4021.6832647415863
3,23,-3172.5859482995597
3,24,-996.1664413897624
3,25,-1858.5091683351086
3,26,-1349.8675126961227
3,27,-1748.2223671306729
3,28,-1106.2614299189918
3,29,59.79378668424816
3,30,-394.0025187128187
3,31,-4020.8510257647254
3,32,-1714.294894657968
3,33,-4706.782820576508
3,34,-2460.2691814716372
3,35,-547.5861839876533
3,36,-2165.1797347151974
3,37,-672.0431107600731
3,38,-2282.9912023610395
3,39,28.792308771455385
3,40,779.4657689202487
3,41,-1754.042802128411
3,42,-4081.5901668395773
3,43,-1201.542785649265
3,44,-4135.412152369992
3,45,-4061.320394993007
3,46,-2100.397989563375
3,47,-1883.1348427919609
3,48,-1978.9105213034686
3,49,-498.9203702403987
3,50,1081.3666155954468
3,51,-1162.82975424456
3,52,-2644.552160158958
3,53,-3292.501180810294
3,54,-689.7846104520739
3,55,-2230.6835024051784
3,56,-4752.4177830351755
3,57,-285.19764042499276
3,58,-1181.1856123449381
3,59,-2091.9309127874812
3,60,786.1461613811572
3,61,-234.13466301090972
3,62,-1573.733316812069
3,63,-2360.40061955723
3,64,-3144.8062382880416
3,65,-595.5287722209316
3,66,-2132.920337884755
3,67,-4154.391497547392
3,68,-1154.8525796848705
3,69,-3967.467047979569
3,70,330.06537104673623
3,71,2080.056386764342
3,72,-2731.4411011046236
3,73,-1124.0426508923472
3,74,-2744.190304439792
3,75,-3341.422037368607
3,76,-550.4642880106743
3,77,-2545.944592887676
3,78,-3405.444475233903
3,79,-1816.0391707501124
3,80,-13.321033675111275
3,81,2175.153331339797
3,82,-2364.1155027484565
3,83,-1526.2666988624394
3,84,-1232.0243832631024
3,85,-2450.914189013643
3,86,-2468.4377917566308
3,87,-448.3055585831888
3,88,-3275.464106696677
3,89,-3702.710400057619
3,90,-1565.664333447504
3,91,-118.23660103203453
3,92,4.577191075375795
3,93,-2423.8218126494576
3,94,-308.67006502719204
3,95,-2713.3357901863496
3,96,-851.4253841285777
3,97,-3753.0892163140243
3,98,-981.377303249854
3,99,-4191.038733985691
3,100,-3211.6636865662763
3,101,264.1248389467188
3,102,1141.2678744928455
3,103,-1256.1801734119285
3,104,-1693.892123664926
3,105,-1646.5173772665325
3,106,-1851.008702515649
3,107,-77.10901822977124
3,108,-4716.973251368647
3,109,-1588.3518444675497
3,110,-5053.97234647313
3,111,-1680.299200338837
3,112,-391.9249563843301
3,113,-1120.1606935582108
3,114,-1138.4926871562718
3,115,-2628.103244817927
3,116,-1003.5147988197635
3,117,-1718.7868756432188
3,118,48.877378596187384
3,119,-3371.739554074336
3,120,-2275.600134932833
