u,index,value
-3,0,-4570.177908897881
-3,1,-2790.694088700206
-3,2,-376.23152864715354
-3,3,-1293.1315161854582
-3,4,-1021.0195032699331
-3,5,-2638.557706531495
-3,6,-1277.7662427458745
-3,7,-1543.3739927150673
-3,8,-703.2075876547616
-3,9,-2328.9671719209564
-3,10,-4801.750817400002
-3,11,-5379.44636871243
-3,12,-2621.6157031150333
-3,13,-515.827133308463
-3,14,-1809.6937556327955
-3,15,-810.6652298183666
-3,16,-2241.0048530633103
-3,17,-1084.7552175869057
-3,18,-749.1818615526477
-3,19,19.910408065248077
-3,20,-2355.8214807722397
-3,21,-5007.421493462015
-3,22,-3722.9244295589474
-3,23,-3756.552150767181
-3,24,-652.4101417125723
-3,25,-2303.1681517385537
-3,26,-1372.2737130713226
-3,27,-1513.44856790099
-3,28,-1338.6989393756874
-3,29,22.984653712978577
-3,30,-360.21278528880435
-3,31,-3591.139747456893
-3,32,-3995.673736988052
-3,33,-4159.159630606454
-3,34,-4514.294475258624
-3,35,66.43663516563421
-3,36,-2424.537541815183
-3,37,-651.6976580556469
-3,38,-2186.3668436751996
-3,39,-199.57100652967108
-3,40,666.8107577909119
-3,41,-1204.7562423601723
-3,42,-4195.573724802985
-3,43,-2817.192825920833
-3,44,-3384.9711500104822
-3,45,-4208.949406182502
-3,46,-1743.4975111401118
-3,47,-2317.8137828133385
-3,48,-1852.7434658453387
-3,49,-1116.8975122212998
-3,50,1085.5071613087293
-3,51,-846.8847846137581
-3,52,-2558.507669605654
-3,53,-3991.339299037355
-3,54,-1570.6541297446565
-3,55,-3492.2357795736775
-3,56,-4814.532650102432
-3,57,-776.6680541787377
-3,58,-845.3241890276413
-3,59,-2361.2433466946773
-3,60,511.0929834865905
-3,61,498.19837252923685
-3,62,-2120.6922614980845
-3,63,-1968.7070505333052
-3,64,-3580.4520084444744
-3,65,-878.2111220288353
-3,66,-3456.6617826758625
-3,67,-4616.781320431112
-3,68,-1021.5368467731977
-3,69,-3725.5016156572706
-3,70,-699.3734437184105
-3,71,2562.909671657166
-3,72,-2511.1034135825635
-3,73,-1494.3078024300087
-3,74,-2083.8213337990737
-3,75,-4189.156838578763
-3,76,-904.6827966270948
-3,77,-2272.1640913022325
-3,78,-3761.029701765703
-3,79,-1223.3386504776752
-3,80,-980.2139219828431
-3,81,2538.674167759899
-3,82,-1548.6424051382319
-3,83,-2238.158809236453
-3,84,-915.5949448779055
-3,85,-2452.9346138803617
-3,86,-3862.9328221365386
-3,87,-1795.1671642178515
-3,88,-2027.6724008243218
-3,89,-4038.288080811342
-3,90,-1964.5180829890355
-3,91,-935.3075700376792
-3,92,671.1892720832205
-3,93,-2678.9387268579385
-3,94,-61.238278614642795
-3,95,-3077.4510148086993
-3,96,-410.9098058021312
-3,97,-3783.945661697756
-3,98,-4433.626794733906
-3,99,-3534.859444647438
-3,100,-4161.415612718366
-3,101,-148.76711358945843
-3,102,1273.5873613538238
-3,103,-1029.037692192438
-3,104,-1656.2783024438652
-3,105,-1324.3586100079913
-3,106,-2266.1332859035097
-3,107,-355.5357834779879
-3,108,-3563.4757800432385
-3,109,-5699.1087196740355
-3,110,-5269.481633022672
-3,111,-2211.81771216471
-3,112,-691.9041759964229
-3,113,-1260.9995374276389
-3,114,-990.8088013734955
-3,115,-2572.975573249965
-3,116,-1176.496286439604
-3,117,-1359.969908886836
-3,118,-1031.339857103898
-3,119,-2159.6500443216128
-3,120,-4561.222848345105
0,0,-5157.134454557136
0,1,-2444.667050142878
0,2,-494.2470298761283
0,3,-1188.4668875000348
0,4,-1114.2873340081223
0,5,-2612.212480627565
0,6,-1259.7664519304192
0,7,-1526.2104903509078
0,8,-653.3600363739328
0,9,-2553.737493973605
0,10,-4161.017380050704
0,11,-4752.688021683246
0,12,-2370.3789357711908
0,13,-580.5996341276965
0,14,-1784.6376365992305
0,15,-799.3916579012116
0,16,-2279.8368390704836
0,17,-969.9657248110458
0,18,-748.7619633923803
0,19,58.64317814763096
0,20,-2579.449777258988
0,21,-5386.055825190698
0,22,-4250.983937210432
0,23,-3826.1736083524256
0,24,-477.90542432335593
0,25,-2384.4138598693694
0,26,-1288.881111119566
0,27,-1560.9489484765525
0,28,-1261.1560779428808
0,29,25.210844752238195
0,30,-420.95456435431333
0,31,-3671.508116204696
0,32,-3769.2955014834374
0,33,-3738.485382311931
0,34,-4235.634138035838
0,35,38.633723490774656
0,36,-2431.1754300923803
0,37,-639.8239457094818
0,38,-2207.097412713355
0,39,-17.896192991184176
0,40,629.9928710522993
0,41,-1266.4470671473166
0,42,-4477.659981183711
0,43,-2529.23482072535
0,44,-3352.543281608189
0,45,-4221.444047818988
0,46,-1766.0983881325978
0,47,-2285.261386521361
0,48,-1827.9377608742734
0,49,-1003.9024221640663
0,50,1107.383409814771
0,51,-1096.1040053906959
0,52,-2529.452033473041
0,53,-3942.6870467553094
0,54,-1301.763709845247
0,55,-3510.7768983639994
0,56,-4856.590408929338
0,57,-378.3132717203439
0,58,-961.6040360445302
0,59,-2346.598994100494
0,60,668.3021165471343
0,61,352.8727830899168
0,62,-1937.629495810591
0,63,-2153.453220730202
0,64,-3531.9988641578957
0,65,-801.0587302931092
0,66,-2828.9858730182304
0,67,-4597.156936725446
0,68,-1102.1679612811574
0,69,-3903.31497702746
0,70,-266.6234168964022
0,71,2430.333770648039
0,72,-2739.760878115113
0,73,-1335.2779401028304
0,74,-2390.9407961138377
0,75,-3765.712104207704
0,76,-827.0004982060688
0,77,-1573.4986954972117
0,78,-3589.119633380084
0,79,-1354.6582166129328
0,80,-837.7987669582868
0,81,2498.152366809539
0,82,-1818.235456551291
0,83,-1969.6614092906127
0,84,-898.1612112347113
0,85,-2653.583587043563
0,86,-3795.757627079358
0,87,-1678.6145826775266
0,88,-2383.3918168286573
0,89,-4125.496577571692
0,90,-1778.3849877611844
0,91,-676.5323678797106
0,92,481.4926255053032
0,93,-2549.025810791841
0,94,-139.6447804448718
0,95,-3136.3664027728387
0,96,-315.3611147916454
0,97,-3778.86512312682
0,98,-4887.608778853536
0,99,-3682.372372430651
0,100,-3893.374485326172
0,101,0.39416902120831354
0,102,1160.8545915706736
0,103,-1103.395121080168
0,104,-1659.6571565943245
0,105,-1273.2474913939936
0,106,-2368.7202934838697
0,107,-22.346187573998183
0,108,-3887.1285095485364
0,109,-5643.531629694031
0,110,-5262.578170049888
0,111,-2028.9197470982444
0,112,-740.5485644223711
0,113,-1205.4696736101087
0,114,-1082.2617607615377
0,115,-2511.885136443025
0,116,-1179.4727903545672
0,117,-1277.5100781397227
0,118,-1236.594466654611
0,119,-2196.6708184925333
0,120,-4457.166541820166
3,0,-5620.197658409444
3,1,-1907.1204734981422
3,2,-821.890091024337
3,3,-1039.3126585605503
3,4,-1247.6024295626692
3,5,-2597.9852013740983
3,6,-1223.26160346917
3,7,-1551.0730408555837
3,8,-624.3904228837541
3,9,-2805.3224057498173
3,10,-4685.076654100174
3,11,-4556.287488207773
3,12,-2224.8236493907093
3,13,-580.3635049901984
3,14,-1794.252331006399
3,15,-835.803148955153
3,16,-2296.699653174232
3,17,-926.576790465444
3,18,-766.2459396231777
3,19,144.09717576487498
3,20,-2909.8727431325838
3,21,-5033.316763743072
3,22,-3812.008515812316
3,23,-3839.8926550958504
3,24,-561.1040029511884
3,25,-2424.7299458517455
3,26,-1223.9998187768622
3,27,-1631.1256895417225
3,28,-1184.9249543051353
3,29,51.92111772823637
3,30,-554.3540296345891
3,31,-3849.838503579071
3,32,-3602.9649161766292
3,33,-4006.9187891791657
3,34,-3995.8118594921943
3,35,74.51447546778623
3,36,-2452.5962455842164
3,37,-608.2610973450077
3,38,-2285.7842667243212
3,39,162.6396953676236
3,40,470.76151376363043
3,41,-1319.6560458676668
3,42,-4553.585353198978
3,43,-2590.164714708481
3,44,-3617.239519081633
3,45,-3995.028392754871
3,46,-1843.0759085775662
3,47,-2291.895561251155
3,48,-1891.9920217028057
3,49,-869.3863279849116
3,50,1104.171132483305
3,51,-1229.8223690443363
3,52,-2580.4618291156207
3,53,-3887.9813803117345
3,54,-1205.511107600382
3,55,-3135.705339515104
3,56,-4800.413360573744
3,57,-368.7909201291613
3,58,-986.990805070618
3,59,-2320.3554841233827
3,60,800.2763663400488
3,61,166.83762150006575
3,62,-1887.0929199943596
3,63,-2312.4121031372547
3,64,-3504.943893843116
3,65,-790.518916076374
3,66,-3702.203111816745
3,67,-4617.541687878686
3,68,-717.6156028536614
3,69,-4307.845691500757
3,70,256.1214714923856
3,71,2200.792580505279
3,72,-2845.122269023997
3,73,-1234.7871862670936
3,74,-2522.124981294452
3,75,-3987.3675511574115
3,76,-817.5277689752791
3,77,-2185.451283051243
3,78,-3242.4632510929096
3,79,-1504.50344584706
3,80,-554.3512451220347
3,81,2388.065879605293
3,82,-2040.5134380391876
3,83,-1799.5118040198245
3,84,-1138.695943620445
3,85,-2476.642909579302
3,86,-3989.9000097253147
3,87,-1117.4917167938497
3,88,-2692.805784300632
3,89,-4004.202941644506
3,90,-2028.007959729674
3,91,-339.5874616069785
3,92,210.00446035183293
3,93,-2436.7313444476235
3,94,-266.2939622712521
3,95,-3010.766839186858
3,96,-205.3968470250724
3,97,-4809.403009325274
3,98,-2895.6034094845663
3,99,-4012.440635898705
3,100,-3487.6360881474743
3,101,97.58121890009008
3,102,1060.297785923135
3,103,-1148.6446386143602
3,104,-1713.7736956165754
3,105,-1213.1149724190445
3,106,-2535.196828865668
3,107,2.6397227258131855
3,108,-4046.843397884521
3,109,-5606.187932386951
3,110,-5235.982682388339
3,111,-1885.3209977134313
3,112,-803.1439240259558
3,113,-1159.496815268996
3,114,-1179.116931213919
3,115,-2463.5339116367013
3,116,-1195.4651756694523
3,117,-1243.9339358269622
3,118,-1153.8738983893613
3,119,-2300.384102587205
3,120,-4659.260116373745
