u,index,value
-3,0,-4030.632572205587
-3,1,-3619.123214940384
-3,2,108.24112412680236
-3,3,-1433.9498484606406
-3,4,-1376.9788596376006
-3,5,-3017.2044163628893
-3,6,-967.3532427746699
-3,7,-1476.387510946496
-3,8,-643.2555184036075
-3,9,-2403.962633803242
-3,10,-4559.434571587804
-3,11,-3724.321879989464
-3,12,-3004.93793920869
-3,13,-1059.5495154479272
-3,14,-1921.750361265183
-3,15,-602.2661691155611
-3,16,-2350.1137331531017
-3,17,-1171.2733249507178
-3,18,-379.62527663821334
-3,19,-100.97603932460929
-3,20,-2204.4696576448387
-3,21,-5160.51963898796
-3,22,-4457.163205160172
-3,23,-4530.031942781081
-3,24,-473.408053914733
-3,25,-2197.529526878117
-3,26,-1889.1415539087734
-3,27,-1539.1702467192488
-3,28,-1483.2164166904026
-3,29,584.2535062775879
-3,30,-772.1209157148132
-3,31,-3396.187277213258
-3,32,-3619.01378111243
-3,33,-5089.907177113706
-3,34,-4042.190825484408
-3,35,-91.78922401735156
-3,36,-3246.3556928463695
-3,37,286.22326151454985
-3,38,-2722.47425903807
-3,39,204.66964183491373
-3,40,841.2389297051639
-3,41,-1775.1040986564988
-3,42,-3332.05099855729
-3,43,-3210.6163032507234
-3,44,-4476.188166126067
-3,45,-4007.5337032959665
-3,46,-2042.792681748694
-3,47,-2432.0569056909508
-3,48,-1518.8149204539993
-3,49,-2196.5117394941412
-3,50,2342.1877940425766
-3,51,-1827.2705287450926
-3,52,-2290.5731668915337
-3,53,-2765.3458338866394
-3,54,-3356.8930472554403
-3,55,-4144.64145812932
-3,56,-4707.140282108579
-3,57,-517.6350117691296
-3,58,-1908.7478481303458
-3,59,-1532.797232023742
-3,60,1164.2979725476885
-3,61,565.8725914734441
-3,62,-3262.4118507618477
-3,63,-486.32899514065565
-3,64,-3847.364642394894
-3,65,-5312.228711455638
-3,66,-3694.9799358573305
-3,67,-5107.511519640688
-3,68,-1192.4623101094649
-3,69,-3886.544604286471
-3,70,-74.45160522106245
-3,71,841.894020672004
-3,72,-1850.8041887217762
-3,73,-2234.021538137327
-3,74,-1057.8406065718189
-3,75,-4414.204356909771
-3,76,-4976.862400810241
-3,77,-2710.4510969037633
-3,78,-3780.0234868248554
-3,79,-1815.6632506597446
-3,80,-575.7823752433505
-3,81,1852.1084744801153
-3,82,-1509.2778312922026
-3,83,-1238.2817702326033
-3,84,-2027.2444624447478
-3,85,-1569.1048375311038
-3,86,-3459.4343483104103
-3,87,-5104.160823620044
-3,88,-2850.7979177965353
-3,89,-4352.638689633408
-3,90,-1462.66442797725
-3,91,-990.0770661064938
-3,92,115.87826826638012
-3,93,-2393.2121308041783
-3,94,-523.0806271607844
-3,95,-2805.305316393075
-3,96,-632.697248992085
-3,97,-3023.6015923411214
-3,98,-5869.730428577997
-3,99,-3179.3955702168832
-3,100,-3825.4063520554537
-3,101,-197.69360324694114
-3,102,782.6464690911366
-3,103,-980.0304962101815
-3,104,-1314.1597515085411
-3,105,-1115.3277908353866
-3,106,-2129.8021795853833
-3,107,-1130.2543193926977
-3,108,-2890.7590164908434
-3,109,-5129.2267668433515
-3,110,-4628.118629585536
-3,111,-2821.649291723463
-3,112,-543.8685149787817
-3,113,-1540.8068356448368
-3,114,-1075.555075868417
-3,115,-2582.387595153998
-3,116,-1195.9355796303205
-3,117,-1191.3436682760012
-3,118,-850.1759418826653
-3,119,-2096.9801022601177
-3,120,-4989.865776475933
0,0,-4809.775787639954
0,1,-2985.5794307559167
0,2,-37.56971932637329
0,3,-1565.8660312723434
0,4,-1347.3032452455363
0,5,-3018.841768777026
0,6,-884.3757043482295
0,7,-1498.1201405304942
0,8,-652.1435945856186
0,9,-2526.1962210972997
0,10,-4900.464231672445
0,11,-3575.6556722817904
0,12,-3110.7040762917113
0,13,-1028.7766874947758
0,14,-1721.611670949028
0,15,-688.2272280306224
0,16,-2363.745310184251
0,17,-1069.9486472548278
0,18,-378.11878310054226
0,19,27.777493575249267
0,20,-2452.990103834091
0,21,-4958.9126063258245
0,22,-4584.571626169753
0,23,-4045.2687838436177
0,24,-581.8710061584919
0,25,-2357.2987066953797
0,26,-1738.5955897163094
0,27,-1617.164317973144
0,28,-1340.1563503511536
0,29,583.0918556716067
0,30,-943.7413088207386
0,31,-3614.252209047971
0,32,-3315.823052133639
0,33,-4734.7813642614565
0,34,-4285.840881425822
0,35,217.62436200218468
0,36,-3165.774118653499
0,37,241.96584123482702
0,38,-2731.3054635759704
0,39,383.218852684344
0,40,702.5204147631771
0,41,-1628.3894941232154
0,42,-3449.4977255784424
0,43,-3113.5552051601417
0,44,-4102.821632308687
0,45,-4054.4829039771516
0,46,-2212.5976389718144
0,47,-2326.7902240575227
0,48,-1552.6518139383975
0,49,-2070.438342322361
0,50,2435.42555369696
0,51,-2112.08112760688
0,52,-2074.263711549171
0,53,-3202.0937372167964
0,54,-3164.131671523079
0,55,-4787.003469941257
0,56,-4243.084360888521
0,57,-403.0714441573439
0,58,-1961.9501072316252
0,59,-1458.0476126744006
0,60,1290.7474921707028
0,61,377.1795570161238
0,62,-3325.730991345656
0,63,-327.66466467516074
0,64,-4089.954854805493
0,65,-4779.237417306643
0,66,-4186.327127411002
0,67,-4542.1293302928325
0,68,-1660.0842674197672
0,69,-3798.819097594738
0,70,176.1788926553449
0,71,709.4057056757648
0,72,-1908.71416380998
0,73,-2193.2091036207094
0,74,-1016.1660436550919
0,75,-4720.101953980652
0,76,-5104.970763252287
0,77,-3210.599983031538
0,78,-3890.2944579723844
0,79,-1475.776042150509
0,80,-258.9479734807814
0,81,1660.8931255530822
0,82,-1526.3296755434692
0,83,-1224.7635452362172
0,84,-2049.7933938756173
0,85,-1525.681061035359
0,86,-3531.3143293218145
0,87,-5026.724859941528
0,88,-2767.973892589557
0,89,-3909.7495446374196
0,90,-1779.425579976986
0,91,-885.4513613869539
0,92,48.743433982588165
0,93,-2401.445837052483
0,94,-492.9635558093732
0,95,-2871.36996366696
0,96,-584.893910601373
0,97,-3186.4355766790545
0,98,-5947.458979171459
0,99,-3763.37387986755
0,100,-3588.988121194284
0,101,-47.0154809844241
0,102,817.5580720666699
0,103,-1117.0020369817116
0,104,-1203.3054896705492
0,105,-1188.3764369516853
0,106,-2108.5807767267665
0,107,-984.1523341106995
0,108,-3135.2932021433276
0,109,-5054.137737882572
0,110,-4533.078381604217
0,111,-2679.640204648455
0,112,-583.1054363067094
0,113,-1503.9692936089602
0,114,-1107.3186226768457
0,115,-2603.7249586802936
0,116,-1118.0191215315872
0,117,-1188.9234052297102
0,118,-901.9217911747485
0,119,-2259.4803993043492
0,120,-4984.474340766994
3,0,-4243.383952613823
3,1,-3051.4154164584847
3,2,-51.326191366566796
3,3,-1526.4428347078203
3,4,-1441.8849519359687
3,5,-3024.64726031903
3,6,-785.2352710842702
3,7,-1602.738941330212
3,8,-526.6781568815493
3,9,-2806.128767980016
3,10,-4765.8696899786455
3,11,-4120.431704085124
3,12,-2779.422228204055
3,13,-1033.07169613369
3,14,-1772.8914293586834
3,15,-670.9328640404535
3,16,-2404.825881742318
3,17,-1013.5809990125322
3,18,-355.8874542757412
3,19,-18.71186654498849
3,20,-2672.17544396863
3,21,-4823.013753749697
3,22,-4573.124564047867
3,23,-3930.8435819157075
3,24,-706.4406662627581
3,25,-2327.195155018489
3,26,-1769.506681308303
3,27,-1622.5848998453166
3,28,-1272.404634119581
3,29,598.2581505629665
3,30,-1018.8753461699567
3,31,-3699.50811124716
3,32,-3369.1298629928115
3,33,-5135.2210933081105
3,34,-3754.246939172565
3,35,-68.41677425892577
3,36,-3046.661338714378
3,37,278.47814912488826
3,38,-2864.2789540261815
3,39,637.5212504142459
3,40,548.3373908367054
3,41,-1837.4683892000219
3,42,-3471.908149978341
3,43,-3018.360998455102
3,44,-4599.83927989766
3,45,-3618.106254887133
3,46,-2266.935621852299
3,47,-2228.703949947441
3,48,-1749.2752933277236
3,49,-1856.2417407684654
3,50,2457.0376159971684
3,51,-2480.251945714155
3,52,-1810.327337987676
3,53,-3349.2042061546945
3,54,-3633.034502148274
3,55,-4903.899932933399
3,56,-4123.101202189104
3,57,-410.6559726006658
3,58,-2140.8515129859115
3,59,-1265.045161445585
3,60,1313.0298746747494
3,61,241.56937367338517
3,62,-3327.099073087573
3,63,-257.4058552586788
3,64,-4606.100885759839
3,65,-4874.2130798314565
3,66,-3698.077097033252
3,67,-4926.372472425692
3,68,-1426.4883310401278
3,69,-3696.7582959018714
3,70,307.8184234618453
3,71,610.3057454058293
3,72,-2007.9928218693503
3,73,-2206.590733713351
3,74,-947.3283978994374
3,75,-4798.755055334153
3,76,-4799.447635595093
3,77,-2097.044932546906
3,78,-3685.8575713860305
3,79,-1615.1626114231576
3,80,-275.29763164369206
3,81,1665.22290981316
3,82,-1677.9805741259047
3,83,-1152.364195339123
3,84,-2159.423781120699
3,85,-1389.728149083474
3,86,-4128.189557510312
3,87,-4921.578471459352
3,88,-3652.3225488538305
3,89,-3916.330928122532
3,90,-1574.1413945323675
3,91,-725.7992328028752
3,92,-116.6764902153707
3,93,-2386.005919552182
3,94,-477.051454598861
3,95,-2979.2225007053717
3,96,-318.5862168644028
3,97,-3682.222505164662
3,98,-5538.580381014237
3,99,-3776.584149508914
3,100,-3171.3795574009864
3,101,-184.89403020632554
3,102,742.2366157861375
3,103,-1163.4352986265096
3,104,-1184.7073671411174
3,105,-1261.393212635235
3,106,-2062.9015618761664
3,107,-1107.3401965184435
3,108,-3108.576755760116
3,109,-5196.265398341498
3,110,-4488.345901436432
3,111,-2612.188312700229
3,112,-547.643441290047
3,113,-1522.1182038691902
3,114,-1144.6453808267688
3,115,-2645.6095394589047
3,116,-1007.763842035184
3,117,-1303.8692833099644
3,118,-764.7366973478303
3,119,-2451.4039230036856
3,120,-5028.6075063438575
